digraph Tree {
node [shape=box] ;
0 [label="A9 <= 0.5\ngini = 0.427\nsamples = 843\nvalue = [260, 583]\nclass = No"] ;
1 [label="A7 <= 0.5\ngini = 0.486\nsamples = 417\nvalue = [244, 173]\nclass = Yes"] ;
0 -> 1 [labeldistance=2.5, labelangle=45, headlabel="True"] ;
2 [label="A8 <= 0.5\ngini = 0.273\nsamples = 215\nvalue = [180, 35]\nclass = Yes"] ;
1 -> 2 ;
3 [label="A2 <= 0.5\ngini = 0.113\nsamples = 167\nvalue = [157, 10]\nclass = Yes"] ;
2 -> 3 ;
4 [label="A4 <= 0.5\ngini = 0.028\nsamples = 139\nvalue = [137, 2]\nclass = Yes"] ;
3 -> 4 ;
5 [label="gini = 0.0\nsamples = 120\nvalue = [120, 0]\nclass = Yes"] ;
4 -> 5 ;
6 [label="A10 <= 0.5\ngini = 0.188\nsamples = 19\nvalue = [17, 2]\nclass = Yes"] ;
4 -> 6 ;
7 [label="gini = 0.0\nsamples = 16\nvalue = [16, 0]\nclass = Yes"] ;
6 -> 7 ;
8 [label="Case_No <= 641.5\ngini = 0.444\nsamples = 3\nvalue = [1, 2]\nclass = No"] ;
6 -> 8 ;
9 [label="gini = 0.0\nsamples = 1\nvalue = [0, 1]\nclass = No"] ;
8 -> 9 ;
10 [label="A6 <= 0.5\ngini = 0.5\nsamples = 2\nvalue = [1, 1]\nclass = Yes"] ;
8 -> 10 ;
11 [label="gini = 0.0\nsamples = 1\nvalue = [1, 0]\nclass = Yes"] ;
10 -> 11 ;
12 [label="gini = 0.0\nsamples = 1\nvalue = [0, 1]\nclass = No"] ;
10 -> 12 ;
13 [label="A6 <= 0.5\ngini = 0.408\nsamples = 28\nvalue = [20, 8]\nclass = Yes"] ;
3 -> 13 ;
14 [label="Age_Mons <= 35.5\ngini = 0.198\nsamples = 18\nvalue = [16, 2]\nclass = Yes"] ;
13 -> 14 ;
15 [label="gini = 0.0\nsamples = 14\nvalue = [14, 0]\nclass = Yes"] ;
14 -> 15 ;
16 [label="A5 <= 0.5\ngini = 0.5\nsamples = 4\nvalue = [2, 2]\nclass = Yes"] ;
14 -> 16 ;
17 [label="gini = 0.0\nsamples = 2\nvalue = [2, 0]\nclass = Yes"] ;
16 -> 17 ;
18 [label="gini = 0.0\nsamples = 2\nvalue = [0, 2]\nclass = No"] ;
16 -> 18 ;
19 [label="A10 <= 0.5\ngini = 0.48\nsamples = 10\nvalue = [4, 6]\nclass = No"] ;
13 -> 19 ;
20 [label="A4 <= 0.5\ngini = 0.444\nsamples = 6\nvalue = [4, 2]\nclass = Yes"] ;
19 -> 20 ;
21 [label="gini = 0.0\nsamples = 3\nvalue = [3, 0]\nclass = Yes"] ;
20 -> 21 ;
22 [label="Age_Mons <= 19.0\ngini = 0.444\nsamples = 3\nvalue = [1, 2]\nclass = No"] ;
20 -> 22 ;
23 [label="gini = 0.0\nsamples = 1\nvalue = [1, 0]\nclass = Yes"] ;
22 -> 23 ;
24 [label="gini = 0.0\nsamples = 2\nvalue = [0, 2]\nclass = No"] ;
22 -> 24 ;
25 [label="gini = 0.0\nsamples = 4\nvalue = [0, 4]\nclass = No"] ;
19 -> 25 ;
26 [label="A1 <= 0.5\ngini = 0.499\nsamples = 48\nvalue = [23, 25]\nclass = No"] ;
2 -> 26 ;
27 [label="A3 <= 0.5\ngini = 0.42\nsamples = 30\nvalue = [21, 9]\nclass = Yes"] ;
26 -> 27 ;
28 [label="A6 <= 0.5\ngini = 0.278\nsamples = 24\nvalue = [20, 4]\nclass = Yes"] ;
27 -> 28 ;
29 [label="gini = 0.0\nsamples = 17\nvalue = [17, 0]\nclass = Yes"] ;
28 -> 29 ;
30 [label="A5 <= 0.5\ngini = 0.49\nsamples = 7\nvalue = [3, 4]\nclass = No"] ;
28 -> 30 ;
31 [label="gini = 0.0\nsamples = 3\nvalue = [3, 0]\nclass = Yes"] ;
30 -> 31 ;
32 [label="gini = 0.0\nsamples = 4\nvalue = [0, 4]\nclass = No"] ;
30 -> 32 ;
33 [label="A4 <= 0.5\ngini = 0.278\nsamples = 6\nvalue = [1, 5]\nclass = No"] ;
27 -> 33 ;
34 [label="gini = 0.0\nsamples = 1\nvalue = [1, 0]\nclass = Yes"] ;
33 -> 34 ;
35 [label="gini = 0.0\nsamples = 5\nvalue = [0, 5]\nclass = No"] ;
33 -> 35 ;
36 [label="Case_No <= 163.0\ngini = 0.198\nsamples = 18\nvalue = [2, 16]\nclass = No"] ;
26 -> 36 ;
37 [label="A2 <= 0.5\ngini = 0.444\nsamples = 3\nvalue = [2, 1]\nclass = Yes"] ;
36 -> 37 ;
38 [label="gini = 0.0\nsamples = 2\nvalue = [2, 0]\nclass = Yes"] ;
37 -> 38 ;
39 [label="gini = 0.0\nsamples = 1\nvalue = [0, 1]\nclass = No"] ;
37 -> 39 ;
40 [label="gini = 0.0\nsamples = 15\nvalue = [0, 15]\nclass = No"] ;
36 -> 40 ;
41 [label="A2 <= 0.5\ngini = 0.433\nsamples = 202\nvalue = [64, 138]\nclass = No"] ;
1 -> 41 ;
42 [label="A5 <= 0.5\ngini = 0.499\nsamples = 110\nvalue = [58, 52]\nclass = Yes"] ;
41 -> 42 ;
43 [label="A1 <= 0.5\ngini = 0.389\nsamples = 68\nvalue = [50, 18]\nclass = Yes"] ;
42 -> 43 ;
44 [label="A8 <= 0.5\ngini = 0.198\nsamples = 45\nvalue = [40, 5]\nclass = Yes"] ;
43 -> 44 ;
45 [label="gini = 0.0\nsamples = 31\nvalue = [31, 0]\nclass = Yes"] ;
44 -> 45 ;
46 [label="A4 <= 0.5\ngini = 0.459\nsamples = 14\nvalue = [9, 5]\nclass = Yes"] ;
44 -> 46 ;
47 [label="A6 <= 0.5\ngini = 0.32\nsamples = 10\nvalue = [8, 2]\nclass = Yes"] ;
46 -> 47 ;
48 [label="gini = 0.0\nsamples = 7\nvalue = [7, 0]\nclass = Yes"] ;
47 -> 48 ;
49 [label="Age_Mons <= 21.5\ngini = 0.444\nsamples = 3\nvalue = [1, 2]\nclass = No"] ;
47 -> 49 ;
50 [label="gini = 0.0\nsamples = 1\nvalue = [1, 0]\nclass = Yes"] ;
49 -> 50 ;
51 [label="gini = 0.0\nsamples = 2\nvalue = [0, 2]\nclass = No"] ;
49 -> 51 ;
52 [label="A10 <= 0.5\ngini = 0.375\nsamples = 4\nvalue = [1, 3]\nclass = No"] ;
46 -> 52 ;
53 [label="gini = 0.0\nsamples = 1\nvalue = [1, 0]\nclass = Yes"] ;
52 -> 53 ;
54 [label="gini = 0.0\nsamples = 3\nvalue = [0, 3]\nclass = No"] ;
52 -> 54 ;
55 [label="Jaundice_no <= 0.5\ngini = 0.491\nsamples = 23\nvalue = [10, 13]\nclass = No"] ;
43 -> 55 ;
56 [label="Family_mem_with_ASD_no <= 0.5\ngini = 0.219\nsamples = 8\nvalue = [1, 7]\nclass = No"] ;
55 -> 56 ;
57 [label="Age_Mons <= 30.5\ngini = 0.5\nsamples = 2\nvalue = [1, 1]\nclass = Yes"] ;
56 -> 57 ;
58 [label="gini = 0.0\nsamples = 1\nvalue = [1, 0]\nclass = Yes"] ;
57 -> 58 ;
59 [label="gini = 0.0\nsamples = 1\nvalue = [0, 1]\nclass = No"] ;
57 -> 59 ;
60 [label="gini = 0.0\nsamples = 6\nvalue = [0, 6]\nclass = No"] ;
56 -> 60 ;
61 [label="A3 <= 0.5\ngini = 0.48\nsamples = 15\nvalue = [9, 6]\nclass = Yes"] ;
55 -> 61 ;
62 [label="A6 <= 0.5\ngini = 0.375\nsamples = 12\nvalue = [9, 3]\nclass = Yes"] ;
61 -> 62 ;
63 [label="Case_No <= 970.5\ngini = 0.198\nsamples = 9\nvalue = [8, 1]\nclass = Yes"] ;
62 -> 63 ;
64 [label="gini = 0.0\nsamples = 8\nvalue = [8, 0]\nclass = Yes"] ;
63 -> 64 ;
65 [label="gini = 0.0\nsamples = 1\nvalue = [0, 1]\nclass = No"] ;
63 -> 65 ;
66 [label="Sex_f <= 0.5\ngini = 0.444\nsamples = 3\nvalue = [1, 2]\nclass = No"] ;
62 -> 66 ;
67 [label="gini = 0.0\nsamples = 1\nvalue = [1, 0]\nclass = Yes"] ;
66 -> 67 ;
68 [label="gini = 0.0\nsamples = 2\nvalue = [0, 2]\nclass = No"] ;
66 -> 68 ;
69 [label="gini = 0.0\nsamples = 3\nvalue = [0, 3]\nclass = No"] ;
61 -> 69 ;
70 [label="A4 <= 0.5\ngini = 0.308\nsamples = 42\nvalue = [8, 34]\nclass = No"] ;
42 -> 70 ;
71 [label="A8 <= 0.5\ngini = 0.435\nsamples = 25\nvalue = [8, 17]\nclass = No"] ;
70 -> 71 ;
72 [label="Case_No <= 277.0\ngini = 0.486\nsamples = 12\nvalue = [7, 5]\nclass = Yes"] ;
71 -> 72 ;
73 [label="gini = 0.0\nsamples = 4\nvalue = [4, 0]\nclass = Yes"] ;
72 -> 73 ;
74 [label="A6 <= 0.5\ngini = 0.469\nsamples = 8\nvalue = [3, 5]\nclass = No"] ;
72 -> 74 ;
75 [label="gini = 0.0\nsamples = 3\nvalue = [3, 0]\nclass = Yes"] ;
74 -> 75 ;
76 [label="gini = 0.0\nsamples = 5\nvalue = [0, 5]\nclass = No"] ;
74 -> 76 ;
77 [label="Age_Mons <= 35.0\ngini = 0.142\nsamples = 13\nvalue = [1, 12]\nclass = No"] ;
71 -> 77 ;
78 [label="gini = 0.0\nsamples = 10\nvalue = [0, 10]\nclass = No"] ;
77 -> 78 ;
79 [label="Jaundice_no <= 0.5\ngini = 0.444\nsamples = 3\nvalue = [1, 2]\nclass = No"] ;
77 -> 79 ;
80 [label="gini = 0.0\nsamples = 2\nvalue = [0, 2]\nclass = No"] ;
79 -> 80 ;
81 [label="gini = 0.0\nsamples = 1\nvalue = [1, 0]\nclass = Yes"] ;
79 -> 81 ;
82 [label="gini = 0.0\nsamples = 17\nvalue = [0, 17]\nclass = No"] ;
70 -> 82 ;
83 [label="A1 <= 0.5\ngini = 0.122\nsamples = 92\nvalue = [6, 86]\nclass = No"] ;
41 -> 83 ;
84 [label="A5 <= 0.5\ngini = 0.363\nsamples = 21\nvalue = [5, 16]\nclass = No"] ;
83 -> 84 ;
85 [label="Age_Mons <= 34.0\ngini = 0.494\nsamples = 9\nvalue = [5, 4]\nclass = Yes"] ;
84 -> 85 ;
86 [label="gini = 0.0\nsamples = 3\nvalue = [0, 3]\nclass = No"] ;
85 -> 86 ;
87 [label="A8 <= 0.5\ngini = 0.278\nsamples = 6\nvalue = [5, 1]\nclass = Yes"] ;
85 -> 87 ;
88 [label="gini = 0.0\nsamples = 5\nvalue = [5, 0]\nclass = Yes"] ;
87 -> 88 ;
89 [label="gini = 0.0\nsamples = 1\nvalue = [0, 1]\nclass = No"] ;
87 -> 89 ;
90 [label="gini = 0.0\nsamples = 12\nvalue = [0, 12]\nclass = No"] ;
84 -> 90 ;
91 [label="Case_No <= 881.5\ngini = 0.028\nsamples = 71\nvalue = [1, 70]\nclass = No"] ;
83 -> 91 ;
92 [label="gini = 0.0\nsamples = 61\nvalue = [0, 61]\nclass = No"] ;
91 -> 92 ;
93 [label="Case_No <= 897.5\ngini = 0.18\nsamples = 10\nvalue = [1, 9]\nclass = No"] ;
91 -> 93 ;
94 [label="gini = 0.0\nsamples = 1\nvalue = [1, 0]\nclass = Yes"] ;
93 -> 94 ;
95 [label="gini = 0.0\nsamples = 9\nvalue = [0, 9]\nclass = No"] ;
93 -> 95 ;
96 [label="A6 <= 0.5\ngini = 0.072\nsamples = 426\nvalue = [16, 410]\nclass = No"] ;
0 -> 96 [labeldistance=2.5, labelangle=-45, headlabel="False"] ;
97 [label="A5 <= 0.5\ngini = 0.268\nsamples = 94\nvalue = [15, 79]\nclass = No"] ;
96 -> 97 ;
98 [label="A2 <= 0.5\ngini = 0.444\nsamples = 39\nvalue = [13, 26]\nclass = No"] ;
97 -> 98 ;
99 [label="A8 <= 0.5\ngini = 0.499\nsamples = 25\nvalue = [13, 12]\nclass = Yes"] ;
98 -> 99 ;
100 [label="Case_No <= 584.5\ngini = 0.444\nsamples = 18\nvalue = [12, 6]\nclass = Yes"] ;
99 -> 100 ;
101 [label="A7 <= 0.5\ngini = 0.408\nsamples = 7\nvalue = [2, 5]\nclass = No"] ;
100 -> 101 ;
102 [label="gini = 0.0\nsamples = 2\nvalue = [2, 0]\nclass = Yes"] ;
101 -> 102 ;
103 [label="gini = 0.0\nsamples = 5\nvalue = [0, 5]\nclass = No"] ;
101 -> 103 ;
104 [label="Age_Mons <= 16.5\ngini = 0.165\nsamples = 11\nvalue = [10, 1]\nclass = Yes"] ;
100 -> 104 ;
105 [label="A3 <= 0.5\ngini = 0.5\nsamples = 2\nvalue = [1, 1]\nclass = Yes"] ;
104 -> 105 ;
106 [label="gini = 0.0\nsamples = 1\nvalue = [1, 0]\nclass = Yes"] ;
105 -> 106 ;
107 [label="gini = 0.0\nsamples = 1\nvalue = [0, 1]\nclass = No"] ;
105 -> 107 ;
108 [label="gini = 0.0\nsamples = 9\nvalue = [9, 0]\nclass = Yes"] ;
104 -> 108 ;
109 [label="Sex_f <= 0.5\ngini = 0.245\nsamples = 7\nvalue = [1, 6]\nclass = No"] ;
99 -> 109 ;
110 [label="gini = 0.0\nsamples = 5\nvalue = [0, 5]\nclass = No"] ;
109 -> 110 ;
111 [label="A10 <= 0.5\ngini = 0.5\nsamples = 2\nvalue = [1, 1]\nclass = Yes"] ;
109 -> 111 ;
112 [label="gini = 0.0\nsamples = 1\nvalue = [1, 0]\nclass = Yes"] ;
111 -> 112 ;
113 [label="gini = 0.0\nsamples = 1\nvalue = [0, 1]\nclass = No"] ;
111 -> 113 ;
114 [label="gini = 0.0\nsamples = 14\nvalue = [0, 14]\nclass = No"] ;
98 -> 114 ;
115 [label="A7 <= 0.5\ngini = 0.07\nsamples = 55\nvalue = [2, 53]\nclass = No"] ;
97 -> 115 ;
116 [label="Sex_f <= 0.5\ngini = 0.298\nsamples = 11\nvalue = [2, 9]\nclass = No"] ;
115 -> 116 ;
117 [label="gini = 0.0\nsamples = 8\nvalue = [0, 8]\nclass = No"] ;
116 -> 117 ;
118 [label="A1 <= 0.5\ngini = 0.444\nsamples = 3\nvalue = [2, 1]\nclass = Yes"] ;
116 -> 118 ;
119 [label="gini = 0.0\nsamples = 2\nvalue = [2, 0]\nclass = Yes"] ;
118 -> 119 ;
120 [label="gini = 0.0\nsamples = 1\nvalue = [0, 1]\nclass = No"] ;
118 -> 120 ;
121 [label="gini = 0.0\nsamples = 44\nvalue = [0, 44]\nclass = No"] ;
115 -> 121 ;
122 [label="Case_No <= 184.0\ngini = 0.006\nsamples = 332\nvalue = [1, 331]\nclass = No"] ;
96 -> 122 ;
123 [label="Case_No <= 172.0\ngini = 0.05\nsamples = 39\nvalue = [1, 38]\nclass = No"] ;
122 -> 123 ;
124 [label="gini = 0.0\nsamples = 38\nvalue = [0, 38]\nclass = No"] ;
123 -> 124 ;
125 [label="gini = 0.0\nsamples = 1\nvalue = [1, 0]\nclass = Yes"] ;
123 -> 125 ;
126 [label="gini = 0.0\nsamples = 293\nvalue = [0, 293]\nclass = No"] ;
122 -> 126 ;
}